SVM-light Version V6.20
0 # kernel type
3 # kernel parameter -d 
1 # kernel parameter -g 
1 # kernel parameter -s 
1 # kernel parameter -r 
empty# kernel parameter -u 
13 # highest feature index 
14 # number of training documents 
2 # number of support vectors plus 1 
0 # threshold b, each following line is a SV (starting with alpha*y)
1 1:-2.352396 2:-0.7677213 3:-0.29979864 4:2.2786062 5:2.1295407 6:5.7516356 9:-1.1556339 10:-0.09079165 11:0.93353224 12:-2.1347668 #
